sequential/gru/gru_cell/kernel:0
(1, 240)
[[ 0.1278477  -0.44250017 -0.36046827 -0.32801178 -0.3115931  -0.18544008
  -0.32570451 -0.1896431  -0.34118298 -0.33829623 -0.40270552 -0.08900999
  -0.4702047  -0.5779945  -0.20981878 -0.31414786 -0.45130613 -0.37261996
  -0.30449063 -0.4560756  -0.24434942 -0.29290366 -0.30846468 -0.42717397
  -0.24365403 -0.5722799  -0.23007172 -0.11502429 -0.44755223 -0.3182905
  -0.19432184 -0.30001026 -0.44255948 -0.4516846  -0.4151332  -0.42747533
  -0.28277454 -0.28840026 -0.29447582 -0.38773456  0.13012534 -0.47617897
  -0.5274639  -0.03018177 -0.44223955 -0.41268042 -0.4163309  -0.22598788
  -0.28846592 -0.34787276 -0.46990532 -0.02523189 -0.43437883 -0.40932143
  -0.22001463 -0.19689436 -0.40673283 -0.14090301 -0.31449834 -0.36791298
  -0.46111292 -0.34412056 -0.07011802 -0.31292287 -0.32261595 -0.15595661
  -0.35946772 -0.2752234  -0.30900073 -0.43671024 -0.26437017 -0.01621726
  -0.31753352 -0.43884355 -0.17507833 -0.24461167 -0.5062005  -0.43671435
  -0.5226562  -0.27446473  0.00810306 -0.00965811  0.09199893 -0.04317078
  -0.04136087 -0.03867824  0.08830228  0.03288323  0.08579992  0.14584225
  -0.03594957  0.1218351   0.01676226  0.03567009  0.04987868  0.12352479
  -0.17933609  0.11234283 -0.11627817 -0.11328634 -0.06593458  0.01704905
   0.03237221  0.14042297 -0.02342349 -0.0565521  -0.14946952 -0.04986367
  -0.02501186 -0.02444961  0.07659416  0.00485897  0.11212397 -0.10313193
  -0.03783491  0.07598867  0.15244265 -0.04292085  0.05011943 -0.05773631
   0.00748881 -0.00502794  0.0246946  -0.1308548  -0.03700289  0.01052733
   0.07366325  0.11085148 -0.11918499  0.0209173   0.0046094   0.12521116
  -0.125549   -0.15181187  0.01742135  0.1284254   0.0317358  -0.07954257
   0.05808952  0.08104055 -0.14698379 -0.15017769  0.02370639 -0.03654332
  -0.07391633 -0.00744618  0.10868837 -0.10552593 -0.02368655 -0.09933444
   0.07254759  0.08099769 -0.02913619  0.06897449 -0.11871516 -0.01373983
  -0.04455665  0.04932166 -0.03234548 -0.16598819 -0.11330042 -0.08107843
   0.10083081 -0.03589159 -0.138833    0.12447608  0.02982332 -0.06370523
   0.05636375  0.13241124 -0.08370851 -0.05650603 -0.02254893  0.0766033
   0.07111929  0.09597514  0.13887542 -0.04398207  0.09940319  0.15853144
   0.07937741  0.06122994  0.14038534 -0.13910717  0.1305196  -0.0964826
  -0.11905049 -0.05680335  0.14228562 -0.1052675  -0.06391001 -0.03630738
   0.06068185 -0.03137449  0.14304008 -0.04717517 -0.07622284  0.10116227
   0.07034932  0.07002804  0.00129156  0.09369701  0.08808625  0.12402955
  -0.09605748  0.01759147  0.0832657   0.14326054 -0.03122362  0.08029495
  -0.10188331 -0.02091214 -0.06824693  0.1151054  -0.08696224 -0.00212255
   0.01538917 -0.1011798  -0.11343972  0.11332262  0.14009489 -0.1324704
  -0.1362199   0.03472017  0.06623539 -0.12931484  0.06025854  0.1364813
  -0.14561549 -0.05584372 -0.03194465 -0.05561881  0.06471197 -0.15096933
  -0.1182909  -0.0208947  -0.08958188  0.09639199 -0.12646684  0.02289785]]
sequential/gru/gru_cell/recurrent_kernel:0
(80, 240)
[[-0.16175267  0.08112749  0.10538165 ...  0.03810336 -0.14312427
  -0.1035864 ]
 [-0.0982881   0.08058494  0.1503922  ...  0.03697755  0.05444351
  -0.0384602 ]
 [-0.0017225  -0.1237154  -0.17326847 ... -0.03740396 -0.09010416
  -0.04604436]
 ...
 [ 0.05025304 -0.10443214 -0.02688325 ...  0.0116149  -0.01953661
  -0.09445257]
 [-0.03130553  0.025959    0.08114452 ...  0.03965414 -0.05526388
   0.00463564]
 [ 0.02503744  0.11665709  0.0759909  ... -0.08235979  0.09812602
  -0.04262039]]
sequential/gru/gru_cell/bias:0
(2, 240)
[[ 2.83853076e-02 -4.73546892e-01 -6.08536899e-01 -2.39772722e-01
  -5.29859066e-01 -3.97204608e-01 -4.27960902e-01 -4.31215376e-01
  -5.05570769e-01 -2.79670984e-01 -4.68922108e-01 -1.54050559e-01
  -4.51460212e-01 -5.93897998e-01 -4.05677587e-01 -6.05209351e-01
  -4.48493421e-01 -4.58903164e-01 -4.95845735e-01 -6.75463378e-01
  -4.50491697e-01 -3.33929926e-01 -5.03861070e-01 -5.30752838e-01
  -3.52079511e-01 -6.49338365e-01 -4.63083565e-01 -1.59565479e-01
  -4.40558016e-01 -4.25078481e-01 -3.95068645e-01 -4.31708336e-01
  -4.82722253e-01 -4.25435394e-01 -3.98767978e-01 -4.71387953e-01
  -3.54553014e-01 -4.22418863e-01 -3.58740330e-01 -5.13546646e-01
  -1.27150910e-03 -5.41202784e-01 -4.96765316e-01 -1.65232450e-01
  -5.85107863e-01 -4.01173502e-01 -4.46791828e-01 -3.79488140e-01
  -3.74697030e-01 -4.43386614e-01 -4.58305568e-01 -1.23105548e-01
  -4.25975412e-01 -4.38507468e-01 -4.51650381e-01 -9.56311598e-02
  -3.14621270e-01 -3.48006427e-01 -4.24873263e-01 -4.43597198e-01
  -4.40548629e-01 -5.23914635e-01 -2.30418339e-01 -3.37425023e-01
  -5.68515718e-01 -3.69781524e-01 -5.14241993e-01 -4.15935159e-01
  -3.28474641e-01 -4.61333752e-01 -4.26449656e-01 -1.98231250e-01
  -5.58615327e-01 -5.10691702e-01 -3.27598900e-01 -2.22223014e-01
  -4.78238225e-01 -4.75175768e-01 -5.01528800e-01 -2.17538729e-01
   5.41513495e-04 -3.19526345e-02 -2.74490640e-02 -3.09646912e-02
  -7.46745244e-03  4.23379196e-03 -1.38171576e-02 -1.16978297e-02
  -1.36558376e-02  5.96048823e-03 -8.99315067e-03  2.39869660e-05
   4.63517426e-06 -1.03260437e-02 -1.04242926e-02 -1.37567688e-02
  -4.76226723e-03 -1.30043803e-02  8.96911137e-03  1.16056278e-02
  -7.34829577e-03 -2.17196755e-02 -1.13970675e-02  7.06871832e-03
   2.22485326e-03 -6.98104315e-03 -4.01357841e-03  5.15641645e-03
  -2.18576402e-03 -4.14479151e-03 -4.95912973e-03 -1.37322703e-02
  -1.28747635e-02 -8.04852694e-03  5.23393648e-03 -8.08194187e-03
   4.54964163e-03 -5.69415791e-03 -7.79593131e-03 -2.71638650e-02
  -1.13871545e-02 -9.72599722e-03 -1.62527580e-02 -1.45571902e-02
  -6.37796940e-03  4.69447440e-03 -1.42634418e-02 -8.78519658e-03
  -1.97946886e-03 -6.54853554e-03 -8.50476674e-04 -1.76175665e-02
  -5.92762837e-03 -2.98192049e-03 -2.01872569e-02 -1.64872818e-02
  -2.16228678e-03 -6.84468355e-03 -1.56458784e-02  3.94765753e-03
   2.60639400e-03  2.06418196e-03 -5.16555645e-03 -3.92176993e-02
  -4.83537577e-02 -1.16015924e-02 -3.32936309e-02 -1.26332650e-02
   2.74304673e-03 -1.47979455e-02 -5.16124144e-02 -3.94678907e-03
  -2.30361540e-02  6.59491913e-03  6.42979098e-03 -2.86387205e-02
  -4.97695580e-02 -1.17421588e-02 -1.68055631e-02 -3.02735157e-02
   1.14210583e-02  1.27954613e-02 -1.62618570e-02  7.46536581e-03
   2.15244144e-02 -1.63050704e-02 -6.90861652e-03  9.89012234e-03
  -9.92905535e-03 -1.93150714e-02  1.12856822e-02  8.46306514e-03
   5.19003021e-03 -1.20925074e-02 -9.13455617e-03 -1.28956232e-02
  -2.40773149e-02  7.24471407e-03 -1.47403870e-02 -2.17973068e-02
  -9.25142597e-03 -8.39688163e-03 -1.95963830e-02  1.96316782e-02
  -1.52083458e-02  1.51906423e-02  1.45507623e-02  1.01016527e-02
  -2.00684946e-02  1.24865100e-02  1.24365911e-02  6.59034820e-03
  -7.55629502e-03  5.22969896e-03 -1.77988429e-02  1.10766422e-02
   8.55662767e-03 -1.27663361e-02 -1.06993262e-02 -1.21496711e-02
   1.49570417e-03 -1.46440146e-02 -1.42191397e-02 -1.52857471e-02
   1.25169503e-02 -2.33491836e-03 -1.05221104e-02 -1.65469944e-02
   6.73451182e-03 -1.33158742e-02  1.39112296e-02  7.70863285e-03
   8.84693768e-03 -1.45639507e-02  1.28078414e-02  8.08849372e-03
  -2.90028215e-03  1.14311436e-02  1.40351560e-02 -1.53829250e-02
  -1.98357906e-02  1.71406437e-02  1.83544569e-02 -5.58027253e-03
  -1.08386474e-02  1.86106134e-02 -9.16000269e-03 -2.07819305e-02
   1.58906374e-02  7.46193156e-03  7.85496272e-03  1.00578396e-02
  -9.16192587e-03  1.90877933e-02  1.35044660e-02  5.46781812e-03
   1.33014927e-02 -1.56756639e-02  1.60486624e-02 -4.56702197e-03]
 [ 2.83853076e-02 -4.73546892e-01 -6.08536899e-01 -2.39772722e-01
  -5.29859066e-01 -3.97204608e-01 -4.27960902e-01 -4.31215376e-01
  -5.05570769e-01 -2.79670984e-01 -4.68922108e-01 -1.54050559e-01
  -4.51460212e-01 -5.93897998e-01 -4.05677587e-01 -6.05209351e-01
  -4.48493421e-01 -4.58903164e-01 -4.95845735e-01 -6.75463378e-01
  -4.50491697e-01 -3.33929926e-01 -5.03861070e-01 -5.30752838e-01
  -3.52079511e-01 -6.49338365e-01 -4.63083565e-01 -1.59565479e-01
  -4.40558016e-01 -4.25078481e-01 -3.95068645e-01 -4.31708336e-01
  -4.82722253e-01 -4.25435394e-01 -3.98767978e-01 -4.71387953e-01
  -3.54553014e-01 -4.22418863e-01 -3.58740330e-01 -5.13546646e-01
  -1.27150910e-03 -5.41202784e-01 -4.96765316e-01 -1.65232450e-01
  -5.85107863e-01 -4.01173502e-01 -4.46791828e-01 -3.79488140e-01
  -3.74697030e-01 -4.43386614e-01 -4.58305568e-01 -1.23105548e-01
  -4.25975412e-01 -4.38507468e-01 -4.51650381e-01 -9.56311598e-02
  -3.14621270e-01 -3.48006427e-01 -4.24873263e-01 -4.43597198e-01
  -4.40548629e-01 -5.23914635e-01 -2.30418339e-01 -3.37425023e-01
  -5.68515718e-01 -3.69781524e-01 -5.14241993e-01 -4.15935159e-01
  -3.28474641e-01 -4.61333752e-01 -4.26449656e-01 -1.98231250e-01
  -5.58615327e-01 -5.10691702e-01 -3.27598900e-01 -2.22223014e-01
  -4.78238225e-01 -4.75175768e-01 -5.01528800e-01 -2.17538729e-01
   5.41513495e-04 -3.19526345e-02 -2.74490640e-02 -3.09646912e-02
  -7.46745244e-03  4.23379196e-03 -1.38171576e-02 -1.16978297e-02
  -1.36558376e-02  5.96048823e-03 -8.99315067e-03  2.39869660e-05
   4.63517426e-06 -1.03260437e-02 -1.04242926e-02 -1.37567688e-02
  -4.76226723e-03 -1.30043803e-02  8.96911137e-03  1.16056278e-02
  -7.34829577e-03 -2.17196755e-02 -1.13970675e-02  7.06871832e-03
   2.22485326e-03 -6.98104315e-03 -4.01357841e-03  5.15641645e-03
  -2.18576402e-03 -4.14479151e-03 -4.95912973e-03 -1.37322703e-02
  -1.28747635e-02 -8.04852694e-03  5.23393648e-03 -8.08194187e-03
   4.54964163e-03 -5.69415791e-03 -7.79593131e-03 -2.71638650e-02
  -1.13871545e-02 -9.72599722e-03 -1.62527580e-02 -1.45571902e-02
  -6.37796940e-03  4.69447440e-03 -1.42634418e-02 -8.78519658e-03
  -1.97946886e-03 -6.54853554e-03 -8.50476674e-04 -1.76175665e-02
  -5.92762837e-03 -2.98192049e-03 -2.01872569e-02 -1.64872818e-02
  -2.16228678e-03 -6.84468355e-03 -1.56458784e-02  3.94765753e-03
   2.60639400e-03  2.06418196e-03 -5.16555645e-03 -3.92176993e-02
  -4.83537577e-02 -1.16015924e-02 -3.32936309e-02 -1.26332650e-02
   2.74304673e-03 -1.47979455e-02 -5.16124144e-02 -3.94678907e-03
  -2.30361540e-02  6.59491913e-03  6.42979098e-03 -2.86387205e-02
  -4.97695580e-02 -1.17421588e-02 -1.68055631e-02 -3.02735157e-02
   1.13074137e-02  1.23218121e-02 -1.51391178e-02  7.39262486e-03
   2.09012907e-02 -1.60799567e-02 -6.76355464e-03  9.63273272e-03
  -9.64917429e-03 -1.89238023e-02  1.12061081e-02  8.14829301e-03
   5.07020066e-03 -1.13061862e-02 -8.80438462e-03 -1.18916435e-02
  -2.39616390e-02  6.81500416e-03 -1.45666376e-02 -2.17403807e-02
  -9.39477235e-03 -7.79020507e-03 -1.91796776e-02  1.91713888e-02
  -1.50828781e-02  1.50305089e-02  1.50374388e-02  9.84498300e-03
  -2.00116728e-02  1.23523138e-02  1.21408999e-02  6.73623104e-03
  -6.93693571e-03  5.76189999e-03 -1.77008267e-02  1.07608456e-02
   8.42957199e-03 -1.26472479e-02 -1.04415081e-02 -1.20003857e-02
   1.32023590e-03 -1.42084332e-02 -1.37123428e-02 -1.47522958e-02
   1.22839222e-02 -2.34631263e-03 -9.79903247e-03 -1.61427129e-02
   7.26165809e-03 -1.30313672e-02  1.35225309e-02  7.66893756e-03
   8.94266833e-03 -1.44615015e-02  1.23403315e-02  7.95310270e-03
  -3.02450918e-03  1.16573926e-02  1.37269208e-02 -1.46460980e-02
  -1.96163077e-02  1.70649718e-02  1.78647079e-02 -5.26968390e-03
  -1.08316354e-02  1.84371825e-02 -8.71484354e-03 -2.03627851e-02
   1.57774463e-02  7.73643749e-03  7.56283756e-03  9.47630126e-03
  -8.83465353e-03  1.85779594e-02  1.35185625e-02  5.81022259e-03
   1.31629054e-02 -1.51116438e-02  1.53650045e-02 -4.94933641e-03]]
sequential/gru_1/gru_cell_1/kernel:0
(80, 300)
[[-0.11917373 -0.06450255 -0.03754864 ...  0.13059646 -0.01840846
   0.04661208]
 [ 0.05329106 -0.01817744  0.06233112 ... -0.03510572  0.01808201
  -0.12440233]
 [ 0.04054738  0.13427933  0.07267642 ... -0.05251538  0.03482496
  -0.03873463]
 ...
 [ 0.17335495 -0.03293337 -0.09211906 ... -0.08827246  0.09111165
   0.07822099]
 [-0.05820601 -0.00245365 -0.03777733 ...  0.02944237  0.08021538
   0.00620039]
 [ 0.05337795 -0.12883483 -0.10287008 ...  0.05768188  0.10016989
   0.10701919]]
sequential/gru_1/gru_cell_1/recurrent_kernel:0
(100, 300)
[[-0.15437815 -0.04236179  0.0288633  ... -0.0728062  -0.07083858
   0.02323628]
 [ 0.02917806  0.03628479  0.09652301 ... -0.01020424  0.00340598
   0.0158792 ]
 [-0.02252444 -0.06445964 -0.07989024 ... -0.01324346 -0.05496096
  -0.019459  ]
 ...
 [-0.19977608  0.08380631 -0.12864938 ...  0.01000581 -0.01439472
   0.01587324]
 [-0.06584992  0.02332303 -0.08244737 ... -0.05455362 -0.00981428
   0.04890713]
 [ 0.13352436  0.04644882  0.11091985 ...  0.00286157 -0.02713638
   0.07515283]]
sequential/gru_1/gru_cell_1/bias:0
(2, 300)
[[ 1.22989923e-01  4.47157510e-02  7.58556351e-02  3.30565013e-02
  -9.25214682e-03  3.06101516e-02  4.16346788e-02  6.26105517e-02
   1.23117380e-01 -3.39828692e-02  9.28314552e-02  2.44640023e-01
   4.01170626e-02  1.08800940e-01  1.33229017e-01  1.63505837e-01
   1.62980288e-01 -1.59750674e-02  7.04854205e-02  1.22357912e-01
   3.01878583e-02  7.83464983e-02  8.57221484e-02 -9.71269049e-03
   9.75670815e-02  2.50258800e-02  1.05664153e-02  3.86640020e-02
   1.18888617e-01  1.14669204e-01  4.70039062e-02  4.26684832e-03
  -1.15223126e-02  1.24461234e-01 -2.20973995e-02  5.19953705e-02
   4.45221625e-02  1.79805998e-02  2.67636236e-02  1.38202414e-01
   2.38517039e-02  5.43987080e-02  1.33782148e-01  6.39731288e-02
   3.02660689e-02  1.26103044e-01  6.47823811e-02  3.93918715e-02
   8.18058178e-02  2.28366293e-02  1.26215210e-02  7.60582238e-02
   8.04435462e-02  4.46172915e-02  5.47819994e-02  2.71164533e-02
   3.50180268e-02  1.43414229e-01  4.62232083e-02  7.64929131e-02
   4.00327221e-02  7.77923837e-02  4.18033674e-02  3.42624187e-02
   1.53425066e-02  2.91049406e-02  1.37441933e-01  1.02551147e-01
   1.13334604e-01 -7.00221909e-03  8.70953426e-02  7.64377564e-02
   2.31436975e-02  9.52803344e-02  8.54188800e-02  9.40472856e-02
   2.02514365e-01  1.04937300e-01  3.38495858e-02  1.65770695e-01
   1.35680512e-01  1.32723913e-01  6.79619536e-02  1.55475857e-02
   9.10747126e-02 -3.96309374e-03  3.85981761e-02  3.36774550e-02
   8.51730779e-02  8.94640163e-02 -1.03207408e-02  1.53517827e-01
   1.01748936e-01  4.75073308e-02  3.90248112e-02  1.61388010e-01
  -6.79610157e-03  1.86725974e-01  5.89816980e-02  2.67148204e-02
  -3.24301310e-02  1.12933898e-02 -2.38676872e-02  1.22537715e-02
  -1.98916495e-02 -1.82217192e-02 -1.33119496e-02 -7.50949793e-03
  -9.61095095e-03 -3.48432697e-02 -3.15396488e-02 -2.49540936e-02
  -4.78994325e-02 -2.76080091e-02 -2.51314696e-02 -1.42242964e-02
  -4.37642336e-02 -4.31591161e-02 -2.59174611e-02 -1.80967674e-02
  -5.05105108e-02 -3.46394256e-02 -7.47783436e-03 -4.13112305e-02
  -1.91811901e-02 -4.40974608e-02 -2.49494445e-02 -3.93827893e-02
  -1.12665910e-02 -2.51270495e-02 -1.37431799e-02 -1.53035969e-02
  -2.00091824e-02 -1.89740136e-02 -2.20732372e-02 -1.42570715e-02
  -7.07283802e-03 -2.22524330e-02 -2.90842485e-02 -2.57616993e-02
  -3.45207751e-02 -2.30995283e-04 -5.42173209e-03  7.91774970e-03
  -2.24968567e-02 -4.46897186e-02  1.41131682e-02 -1.85152479e-02
  -2.45121643e-02 -3.53072174e-02 -7.17328629e-03  2.29749084e-03
  -1.82965212e-02 -4.42951471e-02 -3.05144419e-03 -2.97422074e-02
  -3.58569361e-02 -8.97519756e-03 -6.94815163e-03 -3.43910724e-05
   9.99013707e-03 -5.24624949e-03  2.99474094e-02 -1.82333998e-02
  -1.85387563e-02 -1.39472671e-02 -5.90412952e-02 -3.51161063e-02
  -4.32311743e-02 -4.01518587e-03 -5.10911494e-02 -6.19819621e-03
  -9.46720317e-03 -2.47309934e-02 -2.97698770e-02 -2.58760005e-02
  -8.58177617e-03 -9.75081325e-03 -3.52040231e-02 -2.75259688e-02
  -2.30993442e-02 -4.73669404e-03 -1.02835689e-02  4.78510326e-03
  -1.88733600e-02 -1.88405048e-02 -5.49309924e-02 -4.62413877e-02
  -1.92449726e-02 -2.06227414e-02 -2.54065748e-02 -3.37266810e-02
  -3.26211490e-02 -8.69815610e-03 -3.45320925e-02 -6.48029335e-03
  -3.40467915e-02 -2.12449729e-02  8.40481650e-03 -1.81170776e-02
  -8.27939995e-03  2.73863156e-03 -6.67293277e-03 -9.67907440e-03
  -6.10508118e-03  1.21210273e-02 -1.07933059e-02 -6.92227297e-03
  -1.17697846e-02 -1.29039790e-02 -1.13943052e-02  7.70443724e-03
   1.08915558e-02 -1.02834348e-02 -8.94918013e-03 -5.87360794e-03
   1.11021642e-02 -7.15151941e-03 -5.35454322e-03 -5.52362856e-03
   8.91117845e-03 -1.13418056e-02 -9.70674586e-03  7.95993023e-03
   1.34088295e-02  8.31731223e-03  7.19956495e-03 -8.05121008e-03
   8.37154035e-03  6.82890974e-03 -6.29488099e-03  6.73785899e-03
   4.88627795e-03  7.78219849e-03  7.45673291e-03  9.93158668e-03
  -8.41037836e-03  1.34432092e-02  4.09169961e-03  6.02860702e-03
   9.39995795e-03  6.73160609e-03 -4.84135747e-03 -3.79545055e-03
  -8.62780679e-03 -6.47096988e-03  8.18848703e-03 -1.08802142e-02
   6.16920646e-03 -7.60198338e-03  5.10491803e-03  1.02814464e-02
  -7.97304604e-03  7.76402326e-03  6.33002119e-03 -7.60736736e-03
  -8.03232659e-03  1.20046139e-02 -1.17585273e-03  6.33038441e-03
   1.04609793e-02  5.04831783e-03 -5.57908555e-03 -8.92068166e-03
  -7.63216987e-03  8.90546571e-03 -7.49550341e-03 -6.06788928e-03
   7.42533524e-03 -4.83109429e-03  1.10961199e-02 -8.29704944e-03
  -6.77586114e-03  8.18667281e-03  1.55386887e-02  6.49507809e-03
  -7.03469431e-03  6.82183681e-03 -1.56309716e-02  7.64949759e-03
   8.84663686e-03 -9.77225974e-03  1.14352005e-02  9.28363856e-03
  -9.90648381e-03 -6.62934035e-03 -5.52190328e-03 -1.08207110e-02
  -6.41245907e-03  7.18589919e-03 -1.18157230e-02  7.07246363e-03
   5.92840277e-03 -5.61232027e-03 -5.05024847e-03 -7.66097289e-03
   1.14311911e-02 -1.26862442e-02 -5.82648953e-03  8.39127786e-03]
 [ 1.22989923e-01  4.47157510e-02  7.58556351e-02  3.30565013e-02
  -9.25214682e-03  3.06101516e-02  4.16346788e-02  6.26105517e-02
   1.23117380e-01 -3.39828692e-02  9.28314552e-02  2.44640023e-01
   4.01170626e-02  1.08800940e-01  1.33229017e-01  1.63505837e-01
   1.62980288e-01 -1.59750674e-02  7.04854205e-02  1.22357912e-01
   3.01878583e-02  7.83464983e-02  8.57221484e-02 -9.71269049e-03
   9.75670815e-02  2.50258800e-02  1.05664153e-02  3.86640020e-02
   1.18888617e-01  1.14669204e-01  4.70039062e-02  4.26684832e-03
  -1.15223126e-02  1.24461234e-01 -2.20973995e-02  5.19953705e-02
   4.45221625e-02  1.79805998e-02  2.67636236e-02  1.38202414e-01
   2.38517039e-02  5.43987080e-02  1.33782148e-01  6.39731288e-02
   3.02660689e-02  1.26103044e-01  6.47823811e-02  3.93918715e-02
   8.18058178e-02  2.28366293e-02  1.26215210e-02  7.60582238e-02
   8.04435462e-02  4.46172915e-02  5.47819994e-02  2.71164533e-02
   3.50180268e-02  1.43414229e-01  4.62232083e-02  7.64929131e-02
   4.00327221e-02  7.77923837e-02  4.18033674e-02  3.42624187e-02
   1.53425066e-02  2.91049406e-02  1.37441933e-01  1.02551147e-01
   1.13334604e-01 -7.00221909e-03  8.70953426e-02  7.64377564e-02
   2.31436975e-02  9.52803344e-02  8.54188800e-02  9.40472856e-02
   2.02514365e-01  1.04937300e-01  3.38495858e-02  1.65770695e-01
   1.35680512e-01  1.32723913e-01  6.79619536e-02  1.55475857e-02
   9.10747126e-02 -3.96309374e-03  3.85981761e-02  3.36774550e-02
   8.51730779e-02  8.94640163e-02 -1.03207408e-02  1.53517827e-01
   1.01748936e-01  4.75073308e-02  3.90248112e-02  1.61388010e-01
  -6.79610157e-03  1.86725974e-01  5.89816980e-02  2.67148204e-02
  -3.24301310e-02  1.12933898e-02 -2.38676872e-02  1.22537715e-02
  -1.98916495e-02 -1.82217192e-02 -1.33119496e-02 -7.50949886e-03
  -9.61095281e-03 -3.48432697e-02 -3.15396488e-02 -2.49540936e-02
  -4.78994325e-02 -2.76080091e-02 -2.51314696e-02 -1.42242964e-02
  -4.37642336e-02 -4.31591161e-02 -2.59174611e-02 -1.80967674e-02
  -5.05105108e-02 -3.46394256e-02 -7.47783436e-03 -4.13112305e-02
  -1.91811901e-02 -4.40974608e-02 -2.49494445e-02 -3.93827893e-02
  -1.12665910e-02 -2.51270495e-02 -1.37431799e-02 -1.53035969e-02
  -2.00091824e-02 -1.89740136e-02 -2.20732372e-02 -1.42570715e-02
  -7.07283802e-03 -2.22524330e-02 -2.90842485e-02 -2.57616993e-02
  -3.45207751e-02 -2.30995283e-04 -5.42173209e-03  7.91774970e-03
  -2.24968567e-02 -4.46897186e-02  1.41131682e-02 -1.85152479e-02
  -2.45121643e-02 -3.53072174e-02 -7.17328629e-03  2.29749084e-03
  -1.82965212e-02 -4.42951471e-02 -3.05144419e-03 -2.97422074e-02
  -3.58569361e-02 -8.97519756e-03 -6.94815163e-03 -3.43910724e-05
   9.99013707e-03 -5.24624949e-03  2.99474094e-02 -1.82333998e-02
  -1.85387563e-02 -1.39472671e-02 -5.90412952e-02 -3.51161063e-02
  -4.32311743e-02 -4.01518587e-03 -5.10911494e-02 -6.19819621e-03
  -9.46720317e-03 -2.47309934e-02 -2.97698770e-02 -2.58760005e-02
  -8.58177617e-03 -9.75081325e-03 -3.52040231e-02 -2.75259688e-02
  -2.30993442e-02 -4.73669404e-03 -1.02835689e-02  4.78510326e-03
  -1.88733600e-02 -1.88405048e-02 -5.49309924e-02 -4.62413877e-02
  -1.92449726e-02 -2.06227414e-02 -2.54065748e-02 -3.37266810e-02
  -3.26211490e-02 -8.69815610e-03 -3.45320925e-02 -6.48029335e-03
  -3.40467915e-02 -2.12449729e-02  8.40481650e-03 -1.81170776e-02
  -8.02311581e-03  2.34997855e-03 -6.09937403e-03 -9.15631186e-03
  -4.97144973e-03  1.08670490e-02 -1.10970000e-02 -7.18980329e-03
  -1.20231472e-02 -1.29820704e-02 -1.15259234e-02  7.36984843e-03
   1.16645722e-02 -1.03331311e-02 -7.98747130e-03 -5.80399670e-03
   1.10369166e-02 -7.57210329e-03 -3.98314605e-03 -5.71090449e-03
   8.81376769e-03 -1.06449416e-02 -1.01016685e-02  8.23124312e-03
   1.30253034e-02  8.75444524e-03  7.34262913e-03 -7.85057899e-03
   8.61515477e-03  6.69258600e-03 -6.33724174e-03  5.89279970e-03
   4.70943982e-03  7.84008671e-03  7.39904121e-03  9.51985549e-03
  -8.08917359e-03  1.21510010e-02  4.12575668e-03  6.01668051e-03
   9.33127105e-03  6.60288054e-03 -4.69431328e-03 -3.66596156e-03
  -7.60190561e-03 -6.19293936e-03  7.71699520e-03 -1.03065483e-02
   6.03188481e-03 -7.25993002e-03  4.80188383e-03  1.02422554e-02
  -8.32626689e-03  7.73828803e-03  6.23603398e-03 -6.87173428e-03
  -7.63380202e-03  1.15235886e-02 -1.76395068e-03  5.55387931e-03
   9.62042157e-03  5.00846142e-03 -5.50914556e-03 -9.00368392e-03
  -7.60787725e-03  8.30876175e-03 -6.86221803e-03 -6.05525263e-03
   5.95649285e-03 -4.94957855e-03  1.08827772e-02 -8.72437004e-03
  -6.85283821e-03  8.86790175e-03  1.52483415e-02  6.30114786e-03
  -6.85087498e-03  6.41521346e-03 -1.60821043e-02  7.81953521e-03
   8.58653244e-03 -9.41067841e-03  1.07847704e-02  9.10437107e-03
  -1.00352885e-02 -6.72239857e-03 -5.99319581e-03 -1.06621692e-02
  -6.43470278e-03  7.03315670e-03 -1.14102094e-02  7.51873897e-03
   6.07614964e-03 -5.41987084e-03 -5.48770512e-03 -7.08353054e-03
   1.06910756e-02 -1.18944217e-02 -5.26382774e-03  8.73927027e-03]]
sequential/dense/kernel:0
(100, 1)
[[-0.1779123 ]
 [ 0.10976157]
 [-0.14910431]
 [-0.06589556]
 [-0.10674917]
 [ 0.07030441]
 [-0.14705229]
 [-0.22566569]
 [-0.09974349]
 [-0.11789313]
 [-0.14818498]
 [ 0.05301781]
 [ 0.10737303]
 [-0.11165142]
 [-0.04817985]
 [-0.12168612]
 [ 0.14840828]
 [-0.20991799]
 [-0.15375702]
 [-0.21112944]
 [ 0.15932734]
 [-0.15503244]
 [-0.16361512]
 [ 0.18462111]
 [ 0.07884349]
 [ 0.18097685]
 [ 0.19483846]
 [-0.1552142 ]
 [ 0.18979499]
 [ 0.18112704]
 [-0.1927739 ]
 [ 0.12955242]
 [ 0.06716018]
 [ 0.17410827]
 [ 0.20568347]
 [ 0.1284405 ]
 [-0.1704313 ]
 [ 0.06439155]
 [ 0.15348503]
 [ 0.22816545]
 [ 0.12262469]
 [ 0.19134948]
 [-0.17037523]
 [-0.07949237]
 [-0.16971314]
 [-0.20462398]
 [ 0.09647944]
 [-0.07393464]
 [ 0.09707093]
 [-0.15856268]
 [ 0.17351498]
 [ 0.09265065]
 [-0.1922578 ]
 [ 0.13118306]
 [ 0.17636085]
 [-0.07252851]
 [-0.19029215]
 [ 0.05221639]
 [-0.00094217]
 [ 0.17796718]
 [ 0.05128618]
 [ 0.01008132]
 [-0.06768714]
 [-0.1556313 ]
 [-0.15577802]
 [ 0.17333166]
 [-0.09198826]
 [-0.17962843]
 [ 0.04447236]
 [-0.15369062]
 [ 0.11703729]
 [-0.20433348]
 [-0.21136373]
 [ 0.1405943 ]
 [ 0.05368908]
 [ 0.19956104]
 [-0.12581857]
 [ 0.21349414]
 [-0.08219779]
 [ 0.17869078]
 [ 0.08785057]
 [-0.09385187]
 [ 0.1107051 ]
 [ 0.08355218]
 [-0.1490116 ]
 [-0.1951219 ]
 [-0.20829369]
 [-0.0881316 ]
 [-0.12068889]
 [ 0.1807006 ]
 [-0.0635878 ]
 [ 0.22069643]
 [ 0.18885085]
 [-0.21208732]
 [-0.22330225]
 [-0.07730366]
 [ 0.06352451]
 [-0.04416231]
 [-0.08788473]
 [ 0.17428134]]
sequential/dense/bias:0
(1,)
[0.06881905]
